----------------置段 Weight-------------
[[ 0.6906574  -0.31079908  1.00595383]
 [ 0.52391808  1.85712166  0.1500061 ]]
[0.88592071 1.48493005 0.73857778]
1.451155006375875
------------------------------------
[[-0.24765293 -1.51785542  3.1513205 ]
 [-0.88354741  0.04653715  3.3680561 ]]
[-0.94378443 -0.86882981  4.92204279]
0.005872613333439784
----------------decay----------------
[[-0.42594483 -0.42600394  0.85201137]
 [-0.63894037 -0.63890096  1.27795566]]
[-0.83061323 -0.83061323  1.66136692]
0.15314312240369898


----------------置段 Weight-------------
[[ 2.6318707   2.27532401  1.13186502]
 [-0.58967834  0.75795558 -0.60556772]]
[1.04841191 2.04735443 0.13410806]
2.329234289939817
------------------------------------
[[ 1.62715895  0.80606842  3.60583236]
 [-2.09674596 -1.44592781  3.10538329]]
[-0.91077599 -0.81769398  4.95834437]
0.005908741367986981
----------------decay----------------
[[-0.42585997 -0.42589921  0.85203199]
 [-0.63899493 -0.63896876  1.27794393]]
[-0.83061142 -0.83061141  1.66136873]
0.15314312240370867


----------------置段 Weight-------------
[[ 0.18376424 -0.22722203  1.70854877]
 [ 0.53162171 -0.60595816 -2.21422756]]
[ 0.58871808 -0.68169556 -0.96767555]
1.9562494966865742
------------------------------------
[[-1.25937843 -1.09205664  4.01652605]
 [-1.63309231 -1.90321007  1.24773837]]
[-2.22541014 -2.36812305  3.53288016]
0.005875804024660922
----------------decay----------------
[[-0.42599304 -0.42598218  0.85205043]
 [-0.63897799 -0.63898524  1.27785985]]
[-0.83067602 -0.83067602  1.66130412]
0.15314312240370623